digraph Tree {
node [shape=box, style="filled, rounded", color="black", fontname=helvetica] ;
edge [fontname=helvetica] ;
0 [label="X[0] <= 2.02\nmse = 34.933\nsamples = 200\nvalue = 11.89", fillcolor="#f9e4d4"] ;
1 [label="X[0] <= -2.05\nmse = 22.455\nsamples = 167\nvalue = 10.212", fillcolor="#fcf1e9"] ;
0 -> 1 [labeldistance=2.5, labelangle=45, headlabel="True"] ;
2 [label="mse = 8.849\nsamples = 32\nvalue = 17.527", fillcolor="#f0b78e"] ;
1 -> 2 ;
3 [label="mse = 9.989\nsamples = 135\nvalue = 8.478", fillcolor="#ffffff"] ;
1 -> 3 ;
4 [label="X[0] <= 2.714\nmse = 11.715\nsamples = 33\nvalue = 20.381", fillcolor="#eba06a"] ;
0 -> 4 [labeldistance=2.5, labelangle=-45, headlabel="False"] ;
5 [label="mse = 5.812\nsamples = 23\nvalue = 18.672", fillcolor="#eeae80"] ;
4 -> 5 ;
6 [label="mse = 3.123\nsamples = 10\nvalue = 24.312", fillcolor="#e58139"] ;
4 -> 6 ;
}